Language model created by QuickLM on Tue Jul 17 16:48:57 EDT 2018
Copyright (c) 1996-2010 Carnegie Mellon University and Alexander I. Rudnicky

The model is in standard ARPA format, designed by Doug Paul while he was at MITRE.

The code that was used to produce this language model is available in Open Source.
Please visit http://www.speech.cs.cmu.edu/tools/ for more information

The (fixed) discount mass is 0.5. The backoffs are computed using the ratio method.
This model based on a corpus of 9 sentences and 13 words

\data\
ngram 1=13
ngram 2=20
ngram 3=16

\1-grams:
-0.8783 </s> -0.3010
-0.8783 <s> -0.2394
-1.8325 FIVE -0.2394
-1.8325 FOUR -0.2394
-1.8325 OKAY -0.2946
-1.8325 ONE -0.2394
-1.0544 SECTOR -0.2609
-1.8325 SIX -0.2394
-1.8325 SPICERACK -0.2394
-1.8325 START -0.2394
-1.8325 STOP -0.2394
-1.8325 THREE -0.2394
-1.8325 TWO -0.2394

\2-grams:
-1.2553 <s> OKAY 0.0000
-0.4771 <s> SECTOR 0.0000
-1.2553 <s> START 0.0000
-1.2553 <s> STOP 0.0000
-0.3010 FIVE </s> -0.3010
-0.3010 FOUR </s> -0.3010
-0.3010 OKAY SPICERACK 0.0000
-0.3010 ONE </s> -0.3010
-1.0792 SECTOR FIVE 0.0000
-1.0792 SECTOR FOUR 0.0000
-1.0792 SECTOR ONE 0.0000
-1.0792 SECTOR SIX 0.0000
-1.0792 SECTOR THREE 0.0000
-1.0792 SECTOR TWO 0.0000
-0.3010 SIX </s> -0.3010
-0.3010 SPICERACK </s> -0.3010
-0.3010 START </s> -0.3010
-0.3010 STOP </s> -0.3010
-0.3010 THREE </s> -0.3010
-0.3010 TWO </s> -0.3010

\3-grams:
-0.3010 <s> OKAY SPICERACK
-1.0792 <s> SECTOR FIVE
-1.0792 <s> SECTOR FOUR
-1.0792 <s> SECTOR ONE
-1.0792 <s> SECTOR SIX
-1.0792 <s> SECTOR THREE
-1.0792 <s> SECTOR TWO
-0.3010 <s> START </s>
-0.3010 <s> STOP </s>
-0.3010 OKAY SPICERACK </s>
-0.3010 SECTOR FIVE </s>
-0.3010 SECTOR FOUR </s>
-0.3010 SECTOR ONE </s>
-0.3010 SECTOR SIX </s>
-0.3010 SECTOR THREE </s>
-0.3010 SECTOR TWO </s>

\end\
